<?xml version="1.0"?>
<opencv_storage>
<cascade>
  <stageType>BOOST</stageType>
  <featureType>HAAR</featureType>
  <height>24</height>
  <width>24</width>
  <stageParams>
    <boostType>GAB</boostType>
    <minHitRate>9.9500000476837158e-01</minHitRate>
    <maxFalseAlarm>5.0000000000000000e-01</maxFalseAlarm>
    <weightTrimRate>9.4999998807907104e-01</weightTrimRate>
    <maxDepth>1</maxDepth>
    <maxWeakCount>100</maxWeakCount></stageParams>
  <featureParams>
    <maxCatCount>0</maxCatCount>
    <featSize>1</featSize>
    <mode>BASIC</mode></featureParams>
  <stageNum>20</stageNum>
  <stages>
    <!-- stage 0 -->
    <_>
      <maxWeakCount>9</maxWeakCount>
      <stageThreshold>-1.4693453311920166e+00</stageThreshold>
      <weakClassifiers>
        <_>
          <internalNodes>
            0 -1 53 4.4885694980621338e-02</internalNodes>
          <leafValues>
            -7.8947371244430542e-01 7.4626863002777100e-02</leafValues></_>
        <_>
          <internalNodes>
            0 -1 93 -4.9931149929761887e-02</internalNodes>
          <leafValues>
            3.3866652846336365e-01 -4.4744119048118591e-01</leafValues></_>
        <_>
          <internalNodes>
            0 -1 115 6.3832685351371765e-02</internalNodes>
          <leafValues>
            -2.4404066801071167e-01 4.9653658270835876e-01</leafValues></_>
        <_>
          <internalNodes>
            0 -1 213 5.1459332462400198e-04</internalNodes>
          <leafValues>
            1.8578082323074341e-01 -6.5753370523452759e-01</leafValues></_>
        <_>
          <internalNodes>
            0 -1 40 1.6851343680173159e-03</internalNodes>
          <leafValues>
            1.4328584074974060e-01 -8.9371210336685181e-01</leafValues></_>
        <_>
          <internalNodes>
            0 -1 110 -1.3684347271919250e-01</internalNodes>
          <leafValues>
            7.2847384214401245e-01 -2.1102751791477203e-01</leafValues></_>
        <_>
          <internalNodes>
            0 -1 96 -9.4746693968772888e-02</internalNodes>
          <leafValues>
            5.2970200777053833e-01 -2.2460266947746277e-01</leafValues></_>
        <_>
          <internalNodes>
            0 -1 215 -1.7685928614810109e-03</internalNodes>
          <leafValues>
            -9.1593998670578003e-01 1.5903103351593018e-01</leafValues></_>
        <_>
          <internalNodes>
            0 -1 211 -1.1238651350140572e-03</internalNodes>
          <leafValues>
            -9.3741548061370850e-01 6.1879962682723999e-02</leafValues></_></weakClassifiers></_>
    <!-- stage 1 -->
    <_>
      <maxWeakCount>11</maxWeakCount>
      <stageThreshold>-1.5647255182266235e+00</stageThreshold>
      <weakClassifiers>
        <_>
          <internalNodes>
            0 -1 172 -4.0932890027761459e-02</internalNodes>
          <leafValues>
            5.7894736528396606e-01 -7.6127320528030396e-01</leafValues></_>
        <_>
          <internalNodes>
            0 -1 40 -1.5901640290394425e-04</internalNodes>
          <leafValues>
            -5.4409861564636230e-01 2.1607410162687302e-02</leafValues></_>
        <_>
          <internalNodes>
            0 -1 171 2.7036588639020920e-02</internalNodes>
          <leafValues>
            -1.9246980547904968e-01 4.9302417039871216e-01</leafValues></_>
        <_>
          <internalNodes>
            0 -1 173 1.9507750868797302e-02</internalNodes>
          <leafValues>
            -1.6416698694229126e-01 4.7365811467170715e-01</leafValues></_>
        <_>
          <internalNodes>
            0 -1 26 -1.0385545901954174e-03</internalNodes>
          <leafValues>
            -6.5978807210922241e-01 1.3538525998592377e-01</leafValues></_>
        <_>
          <internalNodes>
            0 -1 207 -1.0500389616936445e-03</internalNodes>
          <leafValues>
            -6.8845415115356445e-01 1.5207670629024506e-01</leafValues></_>
        <_>
          <internalNodes>
            0 -1 78 -4.9656681716442108e-02</internalNodes>
          <leafValues>
            4.6875742077827454e-01 -1.7603281140327454e-01</leafValues></_>
        <_>
          <internalNodes>
            0 -1 102 -6.3615422695875168e-03</internalNodes>
          <leafValues>
            -9.6566730737686157e-01 9.9850133061408997e-02</leafValues></_>
        <_>
          <internalNodes>
            0 -1 13 5.1875945180654526e-02</internalNodes>
          <leafValues>
            -1.5768334269523621e-01 5.9567588567733765e-01</leafValues></_>
        <_>
          <internalNodes>
            0 -1 89 1.0578019544482231e-02</internalNodes>
          <leafValues>
            1.2879534065723419e-01 -7.3002713918685913e-01</leafValues></_>
        <_>
          <internalNodes>
            0 -1 168 4.0719751268625259e-03</internalNodes>
          <leafValues>
            8.8220261037349701e-02 -7.7544200420379639e-01</leafValues></_></weakClassifiers></_>
    <!-- stage 2 -->
    <_>
      <maxWeakCount>11</maxWeakCount>
      <stageThreshold>-1.6054037809371948e+00</stageThreshold>
      <weakClassifiers>
        <_>
          <internalNodes>
            0 -1 143 -8.8063433766365051e-02</internalNodes>
          <leafValues>
            6.9230771064758301e-01 -7.5549691915512085e-01</leafValues></_>
        <_>
          <internalNodes>
            0 -1 119 2.0434096455574036e-02</internalNodes>
          <leafValues>
            -3.5323011875152588e-01 3.1295326352119446e-01</leafValues></_>
        <_>
          <internalNodes>
            0 -1 162 -2.4913847446441650e-02</internalNodes>
          <leafValues>
            3.8756930828094482e-01 -2.1929527819156647e-01</leafValues></_>
        <_>
          <internalNodes>
            0 -1 158 -1.0574679821729660e-02</internalNodes>
          <leafValues>
            3.2149270176887512e-01 -2.5518155097961426e-01</leafValues></_>
        <_>
          <internalNodes>
            0 -1 81 -8.5085891187191010e-03</internalNodes>
          <leafValues>
            3.8110226392745972e-01 -2.1668101847171783e-01</leafValues></_>
        <_>
          <internalNodes>
            0 -1 192 1.6430460382252932e-03</internalNodes>
          <leafValues>
            1.3659900426864624e-01 -6.6026675701141357e-01</leafValues></_>
        <_>
          <internalNodes>
            0 -1 120 -5.1980358548462391e-03</internalNodes>
          <leafValues>
            3.9193269610404968e-01 -2.0116841793060303e-01</leafValues></_>
        <_>
          <internalNodes>
            0 -1 129 -3.7549226544797421e-04</internalNodes>
          <leafValues>
            -5.6688010692596436e-01 1.3502134382724762e-01</leafValues></_>
        <_>
          <internalNodes>
            0 -1 92 1.6096409410238266e-02</internalNodes>
          <leafValues>
            -2.1161259710788727e-01 3.9521223306655884e-01</leafValues></_>
        <_>
          <internalNodes>
            0 -1 31 -1.2035762891173363e-02</internalNodes>
          <leafValues>
            4.4150468707084656e-01 -1.5165287256240845e-01</leafValues></_>
        <_>
          <internalNodes>
            0 -1 144 6.1006449162960052e-02</internalNodes>
          <leafValues>
            -1.7888867855072021e-01 5.3933352231979370e-01</leafValues></_></weakClassifiers></_>
    <!-- stage 3 -->
    <_>
      <maxWeakCount>12</maxWeakCount>
      <stageThreshold>-1.4229162931442261e+00</stageThreshold>
      <weakClassifiers>
        <_>
          <internalNodes>
            0 -1 204 -6.1122644692659378e-03</internalNodes>
          <leafValues>
            1.5151515603065491e-01 -7.6544314622879028e-01</leafValues></_>
        <_>
          <internalNodes>
            0 -1 69 -7.6296809129416943e-04</internalNodes>
          <leafValues>
            -6.6724753379821777e-01 -7.9591900110244751e-02</leafValues></_>
        <_>
          <internalNodes>
            0 -1 197 6.3873175531625748e-03</internalNodes>
          <leafValues>
            -1.8456524610519409e-01 4.2809233069419861e-01</leafValues></_>
        <_>
          <internalNodes>
            0 -1 6 2.2773599624633789e-01</internalNodes>
          <leafValues>
            8.7201699614524841e-02 -9.0253609418869019e-01</leafValues></_>
        <_>
          <internalNodes>
            0 -1 19 -1.6394652426242828e-02</internalNodes>
          <leafValues>
            3.2405006885528564e-01 -2.1324107050895691e-01</leafValues></_>
        <_>
          <internalNodes>
            0 -1 98 1.2320933863520622e-02</internalNodes>
          <leafValues>
            -2.1875624358654022e-01 3.3534768223762512e-01</leafValues></_>
        <_>
          <internalNodes>
            0 -1 52 -1.4451898168772459e-03</internalNodes>
          <leafValues>
            -4.0561985969543457e-01 2.1529738605022430e-01</leafValues></_>
        <_>
          <internalNodes>
            0 -1 87 1.6426452202722430e-03</internalNodes>
          <leafValues>
            -2.0370508730411530e-01 3.8316297531127930e-01</leafValues></_>
        <_>
          <internalNodes>
            0 -1 113 5.7483348064124584e-04</internalNodes>
          <leafValues>
            2.1215666830539703e-01 -3.9176586270332336e-01</leafValues></_>
        <_>
          <internalNodes>
            0 -1 106 1.1185200884938240e-02</internalNodes>
          <leafValues>
            -2.1572029590606689e-01 3.9852175116539001e-01</leafValues></_>
        <_>
          <internalNodes>
            0 -1 187 1.1213237419724464e-02</internalNodes>
          <leafValues>
            -1.3449247181415558e-01 5.3015315532684326e-01</leafValues></_>
        <_>
          <internalNodes>
            0 -1 39 -1.2828540056943893e-03</internalNodes>
          <leafValues>
            -5.1450628042221069e-01 1.4536243677139282e-01</leafValues></_></weakClassifiers></_>
    <!-- stage 4 -->
    <_>
      <maxWeakCount>10</maxWeakCount>
      <stageThreshold>-1.3512878417968750e+00</stageThreshold>
      <weakClassifiers>
        <_>
          <internalNodes>
            0 -1 137 -3.4807110205292702e-03</internalNodes>
          <leafValues>
            -1.9512194395065308e-01 -7.8089886903762817e-01</leafValues></_>
        <_>
          <internalNodes>
            0 -1 133 2.3444029502570629e-03</internalNodes>
          <leafValues>
            -3.4393510222434998e-01 3.6649164557456970e-01</leafValues></_>
        <_>
          <internalNodes>
            0 -1 43 7.2267400100827217e-03</internalNodes>
          <leafValues>
            -1.4167280495166779e-01 5.1859647035598755e-01</leafValues></_>
        <_>
          <internalNodes>
            0 -1 146 1.5389123931527138e-02</internalNodes>
          <leafValues>
            -1.4091163873672485e-01 4.7103476524353027e-01</leafValues></_>
        <_>
          <internalNodes>
            0 -1 100 2.1714328322559595e-03</internalNodes>
          <leafValues>
            -1.8959218263626099e-01 3.5678839683532715e-01</leafValues></_>
        <_>
          <internalNodes>
            0 -1 83 -1.0467431508004665e-02</internalNodes>
          <leafValues>
            3.6693006753921509e-01 -2.2502747178077698e-01</leafValues></_>
        <_>
          <internalNodes>
            0 -1 170 1.4629509299993515e-02</internalNodes>
          <leafValues>
            -2.2025346755981445e-01 3.2791382074356079e-01</leafValues></_>
        <_>
          <internalNodes>
            0 -1 94 5.8387964963912964e-03</internalNodes>
          <leafValues>
            -1.3259088993072510e-01 5.5794674158096313e-01</leafValues></_>
        <_>
          <internalNodes>
            0 -1 29 2.9211427317932248e-04</internalNodes>
          <leafValues>
            1.8370406329631805e-01 -4.1070097684860229e-01</leafValues></_>
        <_>
          <internalNodes>
            0 -1 28 -2.3024543770588934e-04</internalNodes>
          <leafValues>
            -4.5465731620788574e-01 2.2659733891487122e-01</leafValues></_></weakClassifiers></_>
    <!-- stage 5 -->
    <_>
      <maxWeakCount>12</maxWeakCount>
      <stageThreshold>-1.4476536512374878e+00</stageThreshold>
      <weakClassifiers>
        <_>
          <internalNodes>
            0 -1 45 -5.8072861284017563e-03</internalNodes>
          <leafValues>
            -2.3636363446712494e-01 -7.9230767488479614e-01</leafValues></_>
        <_>
          <internalNodes>
            0 -1 74 -8.7350353598594666e-02</internalNodes>
          <leafValues>
            -7.9772990942001343e-01 -1.2790057063102722e-01</leafValues></_>
        <_>
          <internalNodes>
            0 -1 4 -1.7164172604680061e-02</internalNodes>
          <leafValues>
            3.4847915172576904e-01 -2.0691427588462830e-01</leafValues></_>
        <_>
          <internalNodes>
            0 -1 32 1.2812752276659012e-02</internalNodes>
          <leafValues>
            -1.5216936171054840e-01 3.8412246108055115e-01</leafValues></_>
        <_>
          <internalNodes>
            0 -1 38 7.2996467351913452e-03</internalNodes>
          <leafValues>
            1.3763973116874695e-01 -5.0486588478088379e-01</leafValues></_>
        <_>
          <internalNodes>
            0 -1 175 -9.3397554010152817e-03</internalNodes>
          <leafValues>
            5.7963681221008301e-01 -1.4074669778347015e-01</leafValues></_>
        <_>
          <internalNodes>
            0 -1 3 4.1373437270522118e-03</internalNodes>
          <leafValues>
            1.2098672986030579e-01 -7.2001630067825317e-01</leafValues></_>
        <_>
          <internalNodes>
            0 -1 14 -1.2626696377992630e-02</internalNodes>
          <leafValues>
            3.7541195750236511e-01 -2.1520376205444336e-01</leafValues></_>
        <_>
          <internalNodes>
            0 -1 61 -6.6566141322255135e-03</internalNodes>
          <leafValues>
            3.8660603761672974e-01 -2.1855214238166809e-01</leafValues></_>
        <_>
          <internalNodes>
            0 -1 47 -5.6279391050338745e-02</internalNodes>
          <leafValues>
            4.6781578660011292e-01 -1.7327895760536194e-01</leafValues></_>
        <_>
          <internalNodes>
            0 -1 12 -3.3315017935819924e-04</internalNodes>
          <leafValues>
            -3.0185982584953308e-01 2.2681117057800293e-01</leafValues></_>
        <_>
          <internalNodes>
            0 -1 88 -1.1228550647501834e-05</internalNodes>
          <leafValues>
            2.3194573819637299e-01 -2.9618459939956665e-01</leafValues></_></weakClassifiers></_>
    <!-- stage 6 -->
    <_>
      <maxWeakCount>15</maxWeakCount>
      <stageThreshold>-1.5377540588378906e+00</stageThreshold>
      <weakClassifiers>
        <_>
          <internalNodes>
            0 -1 189 -5.1828180439770222e-03</internalNodes>
          <leafValues>
            3.6363637447357178e-01 -7.6063829660415649e-01</leafValues></_>
        <_>
          <internalNodes>
            0 -1 177 1.6456983285024762e-03</internalNodes>
          <leafValues>
            -3.4925988316535950e-01 2.5380951166152954e-01</leafValues></_>
        <_>
          <internalNodes>
            0 -1 188 -1.8864493817090988e-02</internalNodes>
          <leafValues>
            5.0216633081436157e-01 -1.3244147598743439e-01</leafValues></_>
        <_>
          <internalNodes>
            0 -1 174 2.4964883923530579e-02</internalNodes>
          <leafValues>
            -2.1993024647235870e-01 3.3642983436584473e-01</leafValues></_>
        <_>
          <internalNodes>
            0 -1 101 -1.6152808675542474e-03</internalNodes>
          <leafValues>
            -5.4694980382919312e-01 1.2669029831886292e-01</leafValues></_>
        <_>
          <internalNodes>
            0 -1 77 1.8776898505166173e-03</internalNodes>
          <leafValues>
            2.0900744199752808e-01 -3.9995741844177246e-01</leafValues></_>
        <_>
          <internalNodes>
            0 -1 84 2.4146098643541336e-02</internalNodes>
          <leafValues>
            -1.4215473830699921e-01 5.2872425317764282e-01</leafValues></_>
        <_>
          <internalNodes>
            0 -1 37 5.7289330288767815e-04</internalNodes>
          <leafValues>
            1.1856624484062195e-01 -5.5590409040451050e-01</leafValues></_>
        <_>
          <internalNodes>
            0 -1 196 -3.2609528861939907e-03</internalNodes>
          <leafValues>
            5.8387506008148193e-01 -1.0542771220207214e-01</leafValues></_>
        <_>
          <internalNodes>
            0 -1 127 -1.4120908454060555e-03</internalNodes>
          <leafValues>
            2.9844897985458374e-01 -2.3644672334194183e-01</leafValues></_>
        <_>
          <internalNodes>
            0 -1 151 1.8545575439929962e-02</internalNodes>
          <leafValues>
            1.0612978041172028e-01 -6.3701808452606201e-01</leafValues></_>
        <_>
          <internalNodes>
            0 -1 208 9.7803922835737467e-04</internalNodes>
          <leafValues>
            1.5495090186595917e-01 -4.1934618353843689e-01</leafValues></_>
        <_>
          <internalNodes>
            0 -1 190 6.7182932980358601e-04</internalNodes>
          <leafValues>
            9.8168127238750458e-02 -6.4934569597244263e-01</leafValues></_>
        <_>
          <internalNodes>
            0 -1 148 7.2811860591173172e-03</internalNodes>
          <leafValues>
            -1.8085172772407532e-01 4.5255088806152344e-01</leafValues></_>
        <_>
          <internalNodes>
            0 -1 136 3.0371889472007751e-02</internalNodes>
          <leafValues>
            1.0141616314649582e-01 -6.8606352806091309e-01</leafValues></_></weakClassifiers></_>
    <!-- stage 7 -->
    <_>
      <maxWeakCount>14</maxWeakCount>
      <stageThreshold>-1.4591671228408813e+00</stageThreshold>
      <weakClassifiers>
        <_>
          <internalNodes>
            0 -1 91 1.6197819262742996e-02</internalNodes>
          <leafValues>
            -7.7070063352584839e-01 -5.8823529630899429e-02</leafValues></_>
        <_>
          <internalNodes>
            0 -1 194 -1.2200598139315844e-03</internalNodes>
          <leafValues>
            4.3550497293472290e-01 -3.1787091493606567e-01</leafValues></_>
        <_>
          <internalNodes>
            0 -1 134 1.2640848290175200e-03</internalNodes>
          <leafValues>
            -1.1934219300746918e-01 5.2182817459106445e-01</leafValues></_>
        <_>
          <internalNodes>
            0 -1 95 -1.3314595445990562e-02</internalNodes>
          <leafValues>
            4.1884812712669373e-01 -1.4463281631469727e-01</leafValues></_>
        <_>
          <internalNodes>
            0 -1 86 -3.8610901683568954e-03</internalNodes>
          <leafValues>
            3.3002322912216187e-01 -1.9236533343791962e-01</leafValues></_>
        <_>
          <internalNodes>
            0 -1 200 -2.9382477514445782e-03</internalNodes>
          <leafValues>
            -5.3714263439178467e-01 1.3146795332431793e-01</leafValues></_>
        <_>
          <internalNodes>
            0 -1 185 1.1716965585947037e-02</internalNodes>
          <leafValues>
            -1.2315309792757034e-01 4.8994752764701843e-01</leafValues></_>
        <_>
          <internalNodes>
            0 -1 166 2.1784830838441849e-02</internalNodes>
          <leafValues>
            -1.3471937179565430e-01 5.7309663295745850e-01</leafValues></_>
        <_>
          <internalNodes>
            0 -1 9 -6.8653433118015528e-04</internalNodes>
          <leafValues>
            -6.5160095691680908e-01 9.6850112080574036e-02</leafValues></_>
        <_>
          <internalNodes>
            0 -1 10 1.7018736107274890e-03</internalNodes>
          <leafValues>
            1.3111226260662079e-01 -5.0577288866043091e-01</leafValues></_>
        <_>
          <internalNodes>
            0 -1 117 5.0019100308418274e-04</internalNodes>
          <leafValues>
            -2.9962608218193054e-01 2.5869598984718323e-01</leafValues></_>
        <_>
          <internalNodes>
            0 -1 184 1.2900542933493853e-03</internalNodes>
          <leafValues>
            -1.3000218570232391e-01 5.3821235895156860e-01</leafValues></_>
        <_>
          <internalNodes>
            0 -1 118 -1.1228550647501834e-05</internalNodes>
          <leafValues>
            2.8333672881126404e-01 -2.5533553957939148e-01</leafValues></_>
        <_>
          <internalNodes>
            0 -1 163 6.2145947595126927e-05</internalNodes>
          <leafValues>
            -2.5770443677902222e-01 2.5189173221588135e-01</leafValues></_></weakClassifiers></_>
    <!-- stage 8 -->
    <_>
      <maxWeakCount>17</maxWeakCount>
      <stageThreshold>-1.5633536577224731e+00</stageThreshold>
      <weakClassifiers>
        <_>
          <internalNodes>
            0 -1 109 7.5093857944011688e-02</internalNodes>
          <leafValues>
            -7.5330394506454468e-01 3.3333334326744080e-01</leafValues></_>
        <_>
          <internalNodes>
            0 -1 68 -2.1160652977414429e-04</internalNodes>
          <leafValues>
            -5.1821416616439819e-01 -4.6682666987180710e-02</leafValues></_>
        <_>
          <internalNodes>
            0 -1 5 5.8958744630217552e-03</internalNodes>
          <leafValues>
            7.6681077480316162e-02 -5.3490924835205078e-01</leafValues></_>
        <_>
          <internalNodes>
            0 -1 111 1.3321654871106148e-02</internalNodes>
          <leafValues>
            8.4359869360923767e-02 -7.1051609516143799e-01</leafValues></_>
        <_>
          <internalNodes>
            0 -1 212 -3.1629588920623064e-03</internalNodes>
          <leafValues>
            -7.7649402618408203e-01 6.6098295152187347e-02</leafValues></_>
        <_>
          <internalNodes>
            0 -1 99 -4.9992278218269348e-03</internalNodes>
          <leafValues>
            5.2449339628219604e-01 -1.2587468326091766e-01</leafValues></_>
        <_>
          <internalNodes>
            0 -1 169 -4.3391739018261433e-03</internalNodes>
          <leafValues>
            3.9173179864883423e-01 -1.1349304765462875e-01</leafValues></_>
        <_>
          <internalNodes>
            0 -1 75 -1.3325723819434643e-02</internalNodes>
          <leafValues>
            -5.2767580747604370e-01 1.0547732561826706e-01</leafValues></_>
        <_>
          <internalNodes>
            0 -1 42 -2.7958087157458067e-03</internalNodes>
          <leafValues>
            3.1317266821861267e-01 -1.8704375624656677e-01</leafValues></_>
        <_>
          <internalNodes>
            0 -1 121 7.7327517792582512e-03</internalNodes>
          <leafValues>
            9.0017892420291901e-02 -7.0683050155639648e-01</leafValues></_>
        <_>
          <internalNodes>
            0 -1 79 -2.2611694410443306e-02</internalNodes>
          <leafValues>
            7.0014148950576782e-01 -9.0171761810779572e-02</leafValues></_>
        <_>
          <internalNodes>
            0 -1 80 3.2353745773434639e-03</internalNodes>
          <leafValues>
            -1.5622243285179138e-01 3.5054379701614380e-01</leafValues></_>
        <_>
          <internalNodes>
            0 -1 0 5.1521824207156897e-04</internalNodes>
          <leafValues>
            1.2097792327404022e-01 -4.8094689846038818e-01</leafValues></_>
        <_>
          <internalNodes>
            0 -1 1 2.0231239614076912e-04</internalNodes>
          <leafValues>
            1.6072544455528259e-01 -4.0744882822036743e-01</leafValues></_>
        <_>
          <internalNodes>
            0 -1 214 4.3394149543019012e-05</internalNodes>
          <leafValues>
            1.8703208863735199e-01 -3.1702035665512085e-01</leafValues></_>
        <_>
          <internalNodes>
            0 -1 59 9.4219960737973452e-04</internalNodes>
          <leafValues>
            -2.3960267007350922e-01 2.7826440334320068e-01</leafValues></_>
        <_>
          <internalNodes>
            0 -1 58 -8.8896113447844982e-04</internalNodes>
          <leafValues>
            4.7029992938041687e-01 -1.4040377736091614e-01</leafValues></_></weakClassifiers></_>
    <!-- stage 9 -->
    <_>
      <maxWeakCount>14</maxWeakCount>
      <stageThreshold>-1.3631265163421631e+00</stageThreshold>
      <weakClassifiers>
        <_>
          <internalNodes>
            0 -1 125 -1.6582095995545387e-02</internalNodes>
          <leafValues>
            1. -7.5284838676452637e-01</leafValues></_>
        <_>
          <internalNodes>
            0 -1 33 -1.0402308776974678e-02</internalNodes>
          <leafValues>
            2.2562067210674286e-01 -3.3981621265411377e-01</leafValues></_>
        <_>
          <internalNodes>
            0 -1 142 2.7148076333105564e-04</internalNodes>
          <leafValues>
            1.4642412960529327e-01 -4.1998431086540222e-01</leafValues></_>
        <_>
          <internalNodes>
            0 -1 203 -4.0244786068797112e-03</internalNodes>
          <leafValues>
            4.1416299343109131e-01 -1.5205287933349609e-01</leafValues></_>
        <_>
          <internalNodes>
            0 -1 97 -8.3297975361347198e-03</internalNodes>
          <leafValues>
            4.9971899390220642e-01 -1.1107528954744339e-01</leafValues></_>
        <_>
          <internalNodes>
            0 -1 15 7.3356914799660444e-04</internalNodes>
          <leafValues>
            1.3083443045616150e-01 -4.7675669193267822e-01</leafValues></_>
        <_>
          <internalNodes>
            0 -1 105 1.6698443796485662e-03</internalNodes>
          <leafValues>
            -1.0083051025867462e-01 5.4695665836334229e-01</leafValues></_>
        <_>
          <internalNodes>
            0 -1 108 1.5779301975271665e-05</internalNodes>
          <leafValues>
            -2.6595574617385864e-01 2.4915491044521332e-01</leafValues></_>
        <_>
          <internalNodes>
            0 -1 217 -1.8811405170708895e-03</internalNodes>
          <leafValues>
            -7.5289928913116455e-01 7.7410764992237091e-02</leafValues></_>
        <_>
          <internalNodes>
            0 -1 132 -4.1655689477920532e-02</internalNodes>
          <leafValues>
            6.3562119007110596e-01 -9.3473561108112335e-02</leafValues></_>
        <_>
          <internalNodes>
            0 -1 176 -2.6518739759922028e-03</internalNodes>
          <leafValues>
            6.1314427852630615e-01 -1.1682568490505219e-01</leafValues></_>
        <_>
          <internalNodes>
            0 -1 202 -2.7240836061537266e-03</internalNodes>
          <leafValues>
            -7.8273308277130127e-01 8.2941465079784393e-02</leafValues></_>
        <_>
          <internalNodes>
            0 -1 72 1.4098653197288513e-01</internalNodes>
          <leafValues>
            6.5263234078884125e-02 -7.8198063373565674e-01</leafValues></_>
        <_>
          <internalNodes>
            0 -1 139 -5.7446735445410013e-04</internalNodes>
          <leafValues>
            -3.6791074275970459e-01 1.8415160477161407e-01</leafValues></_></weakClassifiers></_>
    <!-- stage 10 -->
    <_>
      <maxWeakCount>8</maxWeakCount>
      <stageThreshold>-1.6814430952072144e+00</stageThreshold>
      <weakClassifiers>
        <_>
          <internalNodes>
            0 -1 57 -1.2691636383533478e-01</internalNodes>
          <leafValues>
            9.4339624047279358e-02 -7.7939838171005249e-01</leafValues></_>
        <_>
          <internalNodes>
            0 -1 17 2.6915919035673141e-02</internalNodes>
          <leafValues>
            -4.4159427285194397e-01 2.9338252544403076e-01</leafValues></_>
        <_>
          <internalNodes>
            0 -1 51 2.7597425505518913e-03</internalNodes>
          <leafValues>
            1.3140581548213959e-01 -7.5475281476974487e-01</leafValues></_>
        <_>
          <internalNodes>
            0 -1 159 -2.5264294818043709e-03</internalNodes>
          <leafValues>
            -1. 8.1423759460449219e-02</leafValues></_>
        <_>
          <internalNodes>
            0 -1 124 -1.5779301975271665e-05</internalNodes>
          <leafValues>
            3.2838913798332214e-01 -3.0140382051467896e-01</leafValues></_>
        <_>
          <internalNodes>
            0 -1 85 -1.3295690223458223e-05</internalNodes>
          <leafValues>
            3.3599594235420227e-01 -2.8775045275688171e-01</leafValues></_>
        <_>
          <internalNodes>
            0 -1 159 -1.3896067684981972e-05</internalNodes>
          <leafValues>
            3.2303184270858765e-01 -2.5621163845062256e-01</leafValues></_>
        <_>
          <internalNodes>
            0 -1 20 -6.2130600214004517e-02</internalNodes>
          <leafValues>
            4.2882296442985535e-01 -1.9529484212398529e-01</leafValues></_></weakClassifiers></_>
    <!-- stage 11 -->
    <_>
      <maxWeakCount>4</maxWeakCount>
      <stageThreshold>-1.4516109228134155e+00</stageThreshold>
      <weakClassifiers>
        <_>
          <internalNodes>
            0 -1 211 -1.7504135030321777e-05</internalNodes>
          <leafValues>
            -2.4390242993831635e-02 -8.2473224401473999e-01</leafValues></_>
        <_>
          <internalNodes>
            0 -1 211 1.7284110072068870e-05</internalNodes>
          <leafValues>
            -6.4341098070144653e-01 3.2447245717048645e-01</leafValues></_>
        <_>
          <internalNodes>
            0 -1 34 -1.6690430129528977e-05</internalNodes>
          <leafValues>
            4.6427497267723083e-01 -4.3918445706367493e-01</leafValues></_>
        <_>
          <internalNodes>
            0 -1 206 -2.0119294276810251e-05</internalNodes>
          <leafValues>
            4.8561796545982361e-01 -3.4462517499923706e-01</leafValues></_></weakClassifiers></_>
    <!-- stage 12 -->
    <_>
      <maxWeakCount>7</maxWeakCount>
      <stageThreshold>-1.8827072381973267e+00</stageThreshold>
      <weakClassifiers>
        <_>
          <internalNodes>
            0 -1 41 1.3202198715589475e-05</internalNodes>
          <leafValues>
            -8.5048753023147583e-01 -2.8634360432624817e-01</leafValues></_>
        <_>
          <internalNodes>
            0 -1 199 -1.6910064005060121e-05</internalNodes>
          <leafValues>
            2.6480364799499512e-01 -5.5502659082412720e-01</leafValues></_>
        <_>
          <internalNodes>
            0 -1 164 1.3202198715589475e-05</internalNodes>
          <leafValues>
            -3.5783025622367859e-01 4.4645726680755615e-01</leafValues></_>
        <_>
          <internalNodes>
            0 -1 25 -1.6690430129528977e-05</internalNodes>
          <leafValues>
            4.7499036788940430e-01 -3.1648251414299011e-01</leafValues></_>
        <_>
          <internalNodes>
            0 -1 23 -2.6056435890495777e-03</internalNodes>
          <leafValues>
            -8.6082756519317627e-01 1.6933815181255341e-01</leafValues></_>
        <_>
          <internalNodes>
            0 -1 71 -8.3715990185737610e-02</internalNodes>
          <leafValues>
            6.2086260318756104e-01 -2.2027762234210968e-01</leafValues></_>
        <_>
          <internalNodes>
            0 -1 34 -1.6690430129528977e-05</internalNodes>
          <leafValues>
            4.3096780776977539e-01 -3.1608483195304871e-01</leafValues></_></weakClassifiers></_>
    <!-- stage 13 -->
    <_>
      <maxWeakCount>9</maxWeakCount>
      <stageThreshold>-1.5049539804458618e+00</stageThreshold>
      <weakClassifiers>
        <_>
          <internalNodes>
            0 -1 8 1.3274875283241272e-01</internalNodes>
          <leafValues>
            -7.6648843288421631e-01 3.5714286565780640e-01</leafValues></_>
        <_>
          <internalNodes>
            0 -1 66 -1.1228550647501834e-05</internalNodes>
          <leafValues>
            1.9352927803993225e-01 -4.8680472373962402e-01</leafValues></_>
        <_>
          <internalNodes>
            0 -1 211 2.6336004957556725e-03</internalNodes>
          <leafValues>
            9.3279339373111725e-02 -9.2893296480178833e-01</leafValues></_>
        <_>
          <internalNodes>
            0 -1 191 -3.0172048136591911e-03</internalNodes>
          <leafValues>
            -8.3469158411026001e-01 1.3213720917701721e-01</leafValues></_>
        <_>
          <internalNodes>
            0 -1 63 -1.4967584320402239e-05</internalNodes>
          <leafValues>
            3.1620493531227112e-01 -3.3272814750671387e-01</leafValues></_>
        <_>
          <internalNodes>
            0 -1 54 -5.0605610013008118e-02</internalNodes>
          <leafValues>
            4.4657599925994873e-01 -2.1128948032855988e-01</leafValues></_>
        <_>
          <internalNodes>
            0 -1 153 -1.2804163816326763e-05</internalNodes>
          <leafValues>
            4.0088132023811340e-01 -2.8615635633468628e-01</leafValues></_>
        <_>
          <internalNodes>
            0 -1 216 1.3588950423581991e-05</internalNodes>
          <leafValues>
            -2.7837032079696655e-01 3.6118793487548828e-01</leafValues></_>
        <_>
          <internalNodes>
            0 -1 46 8.8673979043960571e-03</internalNodes>
          <leafValues>
            1.3418266177177429e-01 -7.0450377464294434e-01</leafValues></_></weakClassifiers></_>
    <!-- stage 14 -->
    <_>
      <maxWeakCount>9</maxWeakCount>
      <stageThreshold>-1.6201186180114746e+00</stageThreshold>
      <weakClassifiers>
        <_>
          <internalNodes>
            0 -1 135 1.9062395393848419e-01</internalNodes>
          <leafValues>
            -7.6533335447311401e-01 4.3999999761581421e-01</leafValues></_>
        <_>
          <internalNodes>
            0 -1 205 -1.7498088709544390e-05</internalNodes>
          <leafValues>
            1.4939060807228088e-01 -4.9909690022468567e-01</leafValues></_>
        <_>
          <internalNodes>
            0 -1 149 -1.3896067684981972e-05</internalNodes>
          <leafValues>
            3.5708776116371155e-01 -3.1630325317382813e-01</leafValues></_>
        <_>
          <internalNodes>
            0 -1 22 -6.9835432805120945e-03</internalNodes>
          <leafValues>
            -5.3411215543746948e-01 2.0070174336433411e-01</leafValues></_>
        <_>
          <internalNodes>
            0 -1 161 1.6321055591106415e-03</internalNodes>
          <leafValues>
            1.9409441947937012e-01 -6.1731541156768799e-01</leafValues></_>
        <_>
          <internalNodes>
            0 -1 180 2.0396873878780752e-05</internalNodes>
          <leafValues>
            -3.1573817133903503e-01 3.1264755129814148e-01</leafValues></_>
        <_>
          <internalNodes>
            0 -1 2 1.1551646748557687e-03</internalNodes>
          <leafValues>
            1.5610106289386749e-01 -6.7712610960006714e-01</leafValues></_>
        <_>
          <internalNodes>
            0 -1 195 1.5707741113146767e-05</internalNodes>
          <leafValues>
            -3.0566594004631042e-01 3.0591157078742981e-01</leafValues></_>
        <_>
          <internalNodes>
            0 -1 70 -7.2003053501248360e-03</internalNodes>
          <leafValues>
            -6.2114948034286499e-01 1.6914048790931702e-01</leafValues></_></weakClassifiers></_>
    <!-- stage 15 -->
    <_>
      <maxWeakCount>10</maxWeakCount>
      <stageThreshold>-1.6576926708221436e+00</stageThreshold>
      <weakClassifiers>
        <_>
          <internalNodes>
            0 -1 7 1.5804275870323181e-02</internalNodes>
          <leafValues>
            -7.7718359231948853e-01 7.8571426868438721e-01</leafValues></_>
        <_>
          <internalNodes>
            0 -1 114 -3.0918393749743700e-03</internalNodes>
          <leafValues>
            6.0443651676177979e-01 -3.9422655105590820e-01</leafValues></_>
        <_>
          <internalNodes>
            0 -1 154 -4.0894839912652969e-03</internalNodes>
          <leafValues>
            7.0016789436340332e-01 -1.3562390208244324e-01</leafValues></_>
        <_>
          <internalNodes>
            0 -1 56 -1.6143313841894269e-03</internalNodes>
          <leafValues>
            4.3414345383644104e-01 -2.5072216987609863e-01</leafValues></_>
        <_>
          <internalNodes>
            0 -1 186 9.5213409513235092e-03</internalNodes>
          <leafValues>
            -1.9424207508563995e-01 5.4268419742584229e-01</leafValues></_>
        <_>
          <internalNodes>
            0 -1 112 1.0976754128932953e-03</internalNodes>
          <leafValues>
            -2.9682043194770813e-01 3.9611029624938965e-01</leafValues></_>
        <_>
          <internalNodes>
            0 -1 27 1.4508334919810295e-02</internalNodes>
          <leafValues>
            -2.0054082572460175e-01 5.3480243682861328e-01</leafValues></_>
        <_>
          <internalNodes>
            0 -1 165 7.6659293845295906e-03</internalNodes>
          <leafValues>
            -1.9127127528190613e-01 5.1039713621139526e-01</leafValues></_>
        <_>
          <internalNodes>
            0 -1 152 1.2416414392646402e-04</internalNodes>
          <leafValues>
            3.6718997359275818e-01 -3.5461285710334778e-01</leafValues></_>
        <_>
          <internalNodes>
            0 -1 138 6.2445009825751185e-04</internalNodes>
          <leafValues>
            -2.8265789151191711e-01 3.5985445976257324e-01</leafValues></_></weakClassifiers></_>
    <!-- stage 16 -->
    <_>
      <maxWeakCount>12</maxWeakCount>
      <stageThreshold>-1.4473062753677368e+00</stageThreshold>
      <weakClassifiers>
        <_>
          <internalNodes>
            0 -1 140 1.4697432518005371e-02</internalNodes>
          <leafValues>
            -7.6834660768508911e-01 1.</leafValues></_>
        <_>
          <internalNodes>
            0 -1 104 1.2418115511536598e-02</internalNodes>
          <leafValues>
            -3.7682291865348816e-01 5.3452640771865845e-01</leafValues></_>
        <_>
          <internalNodes>
            0 -1 60 -1.3267223257571459e-03</internalNodes>
          <leafValues>
            7.9973763227462769e-01 -1.0638845711946487e-01</leafValues></_>
        <_>
          <internalNodes>
            0 -1 141 -1.8585586920380592e-02</internalNodes>
          <leafValues>
            -9.5688956975936890e-01 1.1202780902385712e-01</leafValues></_>
        <_>
          <internalNodes>
            0 -1 150 -1.3674687943421304e-04</internalNodes>
          <leafValues>
            -3.0634751915931702e-01 3.2576265931129456e-01</leafValues></_>
        <_>
          <internalNodes>
            0 -1 155 -6.4284699037671089e-03</internalNodes>
          <leafValues>
            7.3878252506256104e-01 -1.4420324563980103e-01</leafValues></_>
        <_>
          <internalNodes>
            0 -1 116 -7.1413991972804070e-03</internalNodes>
          <leafValues>
            4.8192605376243591e-01 -1.8533766269683838e-01</leafValues></_>
        <_>
          <internalNodes>
            0 -1 147 -9.4139284919947386e-04</internalNodes>
          <leafValues>
            -4.2047080397605896e-01 2.2787949442863464e-01</leafValues></_>
        <_>
          <internalNodes>
            0 -1 35 6.4157522283494473e-03</internalNodes>
          <leafValues>
            2.6758241653442383e-01 -3.8260903954505920e-01</leafValues></_>
        <_>
          <internalNodes>
            0 -1 44 8.9326500892639160e-04</internalNodes>
          <leafValues>
            -2.1577101945877075e-01 5.6207650899887085e-01</leafValues></_>
        <_>
          <internalNodes>
            0 -1 210 -1.7338086036033928e-04</internalNodes>
          <leafValues>
            -3.6967107653617859e-01 2.3502594232559204e-01</leafValues></_>
        <_>
          <internalNodes>
            0 -1 182 1.1753377038985491e-03</internalNodes>
          <leafValues>
            -1.7036442458629608e-01 5.8846908807754517e-01</leafValues></_></weakClassifiers></_>
    <!-- stage 17 -->
    <_>
      <maxWeakCount>13</maxWeakCount>
      <stageThreshold>-1.3913531303405762e+00</stageThreshold>
      <weakClassifiers>
        <_>
          <internalNodes>
            0 -1 198 -2.1565549075603485e-02</internalNodes>
          <leafValues>
            4.8148149251937866e-01 -7.6847732067108154e-01</leafValues></_>
        <_>
          <internalNodes>
            0 -1 55 -2.2460606694221497e-01</internalNodes>
          <leafValues>
            4.8438835144042969e-01 -3.4557926654815674e-01</leafValues></_>
        <_>
          <internalNodes>
            0 -1 16 4.7109045088291168e-02</internalNodes>
          <leafValues>
            -2.6428309082984924e-01 4.6673536300659180e-01</leafValues></_>
        <_>
          <internalNodes>
            0 -1 67 -3.6274908779887483e-05</internalNodes>
          <leafValues>
            3.4226298332214355e-01 -2.2878582775592804e-01</leafValues></_>
        <_>
          <internalNodes>
            0 -1 218 1.5779301975271665e-05</internalNodes>
          <leafValues>
            -2.3752240836620331e-01 3.4615209698677063e-01</leafValues></_>
        <_>
          <internalNodes>
            0 -1 123 -3.1505813822150230e-03</internalNodes>
          <leafValues>
            3.2065355777740479e-01 -2.4914360046386719e-01</leafValues></_>
        <_>
          <internalNodes>
            0 -1 157 1.8382357433438301e-02</internalNodes>
          <leafValues>
            -1.3285717368125916e-01 6.1270779371261597e-01</leafValues></_>
        <_>
          <internalNodes>
            0 -1 145 1.3439730741083622e-02</internalNodes>
          <leafValues>
            -8.8714964687824249e-02 6.5330570936203003e-01</leafValues></_>
        <_>
          <internalNodes>
            0 -1 49 -2.6368159800767899e-02</internalNodes>
          <leafValues>
            4.8370945453643799e-01 -1.8568392097949982e-01</leafValues></_>
        <_>
          <internalNodes>
            0 -1 131 -3.2805189490318298e-02</internalNodes>
          <leafValues>
            8.3751153945922852e-01 -1.1246125400066376e-01</leafValues></_>
        <_>
          <internalNodes>
            0 -1 36 -3.0495070386677980e-03</internalNodes>
          <leafValues>
            -4.3493431806564331e-01 2.2588963806629181e-01</leafValues></_>
        <_>
          <internalNodes>
            0 -1 24 -4.1658920235931873e-03</internalNodes>
          <leafValues>
            -9.3835341930389404e-01 7.8522279858589172e-02</leafValues></_>
        <_>
          <internalNodes>
            0 -1 50 -4.2138621211051941e-03</internalNodes>
          <leafValues>
            4.4939252734184265e-01 -2.2310216724872589e-01</leafValues></_></weakClassifiers></_>
    <!-- stage 18 -->
    <_>
      <maxWeakCount>15</maxWeakCount>
      <stageThreshold>-1.7197753190994263e+00</stageThreshold>
      <weakClassifiers>
        <_>
          <internalNodes>
            0 -1 201 -1.7650853842496872e-03</internalNodes>
          <leafValues>
            1. -7.6678442955017090e-01</leafValues></_>
        <_>
          <internalNodes>
            0 -1 183 1.2239399366080761e-03</internalNodes>
          <leafValues>
            -3.4557253122329712e-01 6.6475224494934082e-01</leafValues></_>
        <_>
          <internalNodes>
            0 -1 11 -5.7830318110063672e-04</internalNodes>
          <leafValues>
            -4.7099632024765015e-01 1.7471046745777130e-01</leafValues></_>
        <_>
          <internalNodes>
            0 -1 107 -3.2593507785350084e-03</internalNodes>
          <leafValues>
            5.0781017541885376e-01 -1.6914089024066925e-01</leafValues></_>
        <_>
          <internalNodes>
            0 -1 82 -3.6533030215650797e-03</internalNodes>
          <leafValues>
            8.5760617256164551e-01 -8.6447238922119141e-02</leafValues></_>
        <_>
          <internalNodes>
            0 -1 128 6.7122234031558037e-03</internalNodes>
          <leafValues>
            -1.1916459351778030e-01 6.1775237321853638e-01</leafValues></_>
        <_>
          <internalNodes>
            0 -1 90 -7.2527779266238213e-03</internalNodes>
          <leafValues>
            -4.8898234963417053e-01 1.7563092708587646e-01</leafValues></_>
        <_>
          <internalNodes>
            0 -1 178 2.7333016041666269e-03</internalNodes>
          <leafValues>
            -1.2684111297130585e-01 6.9722366333007813e-01</leafValues></_>
        <_>
          <internalNodes>
            0 -1 126 2.8818035498261452e-03</internalNodes>
          <leafValues>
            2.4900592863559723e-01 -4.4806399941444397e-01</leafValues></_>
        <_>
          <internalNodes>
            0 -1 181 -5.0092376768589020e-03</internalNodes>
          <leafValues>
            4.1924017667770386e-01 -2.1547609567642212e-01</leafValues></_>
        <_>
          <internalNodes>
            0 -1 103 -2.0211597438901663e-03</internalNodes>
          <leafValues>
            7.9604250192642212e-01 -1.1357349157333374e-01</leafValues></_>
        <_>
          <internalNodes>
            0 -1 209 -5.3793861297890544e-05</internalNodes>
          <leafValues>
            -2.4582527577877045e-01 3.6025279760360718e-01</leafValues></_>
        <_>
          <internalNodes>
            0 -1 130 3.6807376891374588e-03</internalNodes>
          <leafValues>
            -1.9879321753978729e-01 4.6156960725784302e-01</leafValues></_>
        <_>
          <internalNodes>
            0 -1 21 5.8353459462523460e-04</internalNodes>
          <leafValues>
            2.1234494447708130e-01 -3.9911296963691711e-01</leafValues></_>
        <_>
          <internalNodes>
            0 -1 76 -7.2135459631681442e-03</internalNodes>
          <leafValues>
            7.6045459508895874e-01 -1.4384871721267700e-01</leafValues></_></weakClassifiers></_>
    <!-- stage 19 -->
    <_>
      <maxWeakCount>13</maxWeakCount>
      <stageThreshold>-1.4246745109558105e+00</stageThreshold>
      <weakClassifiers>
        <_>
          <internalNodes>
            0 -1 193 -5.0189763307571411e-02</internalNodes>
          <leafValues>
            1. -7.6834660768508911e-01</leafValues></_>
        <_>
          <internalNodes>
            0 -1 160 -2.3079816251993179e-02</internalNodes>
          <leafValues>
            5.4041397571563721e-01 -3.4606814384460449e-01</leafValues></_>
        <_>
          <internalNodes>
            0 -1 48 5.9117083437740803e-03</internalNodes>
          <leafValues>
            -2.1565121412277222e-01 4.0582001209259033e-01</leafValues></_>
        <_>
          <internalNodes>
            0 -1 64 -1.5198767650872469e-03</internalNodes>
          <leafValues>
            4.4616308808326721e-01 -2.1479193866252899e-01</leafValues></_>
        <_>
          <internalNodes>
            0 -1 156 1.6429114621132612e-03</internalNodes>
          <leafValues>
            -2.0354442298412323e-01 4.3657916784286499e-01</leafValues></_>
        <_>
          <internalNodes>
            0 -1 30 -5.7589570060372353e-03</internalNodes>
          <leafValues>
            3.9933711290359497e-01 -2.0339103043079376e-01</leafValues></_>
        <_>
          <internalNodes>
            0 -1 122 -5.6970457080751657e-04</internalNodes>
          <leafValues>
            5.0183218717575073e-01 -1.6993238031864166e-01</leafValues></_>
        <_>
          <internalNodes>
            0 -1 18 -6.0075353831052780e-03</internalNodes>
          <leafValues>
            -7.1331524848937988e-01 1.3290587067604065e-01</leafValues></_>
        <_>
          <internalNodes>
            0 -1 62 -1.7457230715081096e-03</internalNodes>
          <leafValues>
            -4.7818240523338318e-01 1.9833306968212128e-01</leafValues></_>
        <_>
          <internalNodes>
            0 -1 167 -1.1977816000580788e-02</internalNodes>
          <leafValues>
            8.1062960624694824e-01 -1.1125975847244263e-01</leafValues></_>
        <_>
          <internalNodes>
            0 -1 179 -1.7377727199345827e-03</internalNodes>
          <leafValues>
            3.9943405985832214e-01 -2.3724913597106934e-01</leafValues></_>
        <_>
          <internalNodes>
            0 -1 73 -1.7729216779116541e-04</internalNodes>
          <leafValues>
            3.5314130783081055e-01 -2.9319506883621216e-01</leafValues></_>
        <_>
          <internalNodes>
            0 -1 65 -4.4252211228013039e-04</internalNodes>
          <leafValues>
            3.9748659729957581e-01 -2.4154828488826752e-01</leafValues></_></weakClassifiers></_></stages>
  <features>
    <_>
      <rects>
        <_>
          0 0 3 1 -1.</_>
        <_>
          1 0 1 1 3.</_></rects>
      <tilted>0</tilted></_>
    <_>
      <rects>
        <_>
          0 0 2 2 -1.</_>
        <_>
          0 0 1 1 2.</_>
        <_>
          1 1 1 1 2.</_></rects>
      <tilted>0</tilted></_>
    <_>
      <rects>
        <_>
          0 0 2 2 -1.</_>
        <_>
          1 0 1 2 2.</_></rects>
      <tilted>0</tilted></_>
    <_>
      <rects>
        <_>
          0 0 6 1 -1.</_>
        <_>
          3 0 3 1 2.</_></rects>
      <tilted>0</tilted></_>
    <_>
      <rects>
        <_>
          0 0 6 14 -1.</_>
        <_>
          3 0 3 14 2.</_></rects>
      <tilted>0</tilted></_>
    <_>
      <rects>
        <_>
          0 0 10 1 -1.</_>
        <_>
          5 0 5 1 2.</_></rects>
      <tilted>0</tilted></_>
    <_>
      <rects>
        <_>
          0 0 24 9 -1.</_>
        <_>
          12 0 12 9 2.</_></rects>
      <tilted>0</tilted></_>
    <_>
      <rects>
        <_>
          0 0 14 2 -1.</_>
        <_>
          0 1 14 1 2.</_></rects>
      <tilted>0</tilted></_>
    <_>
      <rects>
        <_>
          0 0 23 6 -1.</_>
        <_>
          0 3 23 3 2.</_></rects>
      <tilted>0</tilted></_>
    <_>
      <rects>
        <_>
          0 1 2 1 -1.</_>
        <_>
          1 1 1 1 2.</_></rects>
      <tilted>0</tilted></_>
    <_>
      <rects>
        <_>
          0 1 1 4 -1.</_>
        <_>
          0 3 1 2 2.</_></rects>
      <tilted>0</tilted></_>
    <_>
      <rects>
        <_>
          0 1 2 3 -1.</_>
        <_>
          1 1 1 3 2.</_></rects>
      <tilted>0</tilted></_>
    <_>
      <rects>
        <_>
          0 1 12 1 -1.</_>
        <_>
          4 1 4 1 3.</_></rects>
      <tilted>0</tilted></_>
    <_>
      <rects>
        <_>
          0 2 6 19 -1.</_>
        <_>
          3 2 3 19 2.</_></rects>
      <tilted>0</tilted></_>
    <_>
      <rects>
        <_>
          0 4 6 19 -1.</_>
        <_>
          2 4 2 19 3.</_></rects>
      <tilted>0</tilted></_>
    <_>
      <rects>
        <_>
          0 5 1 3 -1.</_>
        <_>
          0 6 1 1 3.</_></rects>
      <tilted>0</tilted></_>
    <_>
      <rects>
        <_>
          0 5 24 6 -1.</_>
        <_>
          8 5 8 6 3.</_></rects>
      <tilted>0</tilted></_>
    <_>
      <rects>
        <_>
          0 6 16 3 -1.</_>
        <_>
          8 6 8 3 2.</_></rects>
      <tilted>0</tilted></_>
    <_>
      <rects>
        <_>
          0 7 2 6 -1.</_>
        <_>
          0 9 2 2 3.</_></rects>
      <tilted>0</tilted></_>
    <_>
      <rects>
        <_>
          0 8 18 3 -1.</_>
        <_>
          6 8 6 3 3.</_></rects>
      <tilted>0</tilted></_>
    <_>
      <rects>
        <_>
          0 8 24 4 -1.</_>
        <_>
          8 8 8 4 3.</_></rects>
      <tilted>0</tilted></_>
    <_>
      <rects>
        <_>
          0 9 4 1 -1.</_>
        <_>
          2 9 2 1 2.</_></rects>
      <tilted>0</tilted></_>
    <_>
      <rects>
        <_>
          0 9 20 3 -1.</_>
        <_>
          0 10 20 1 3.</_></rects>
      <tilted>0</tilted></_>
    <_>
      <rects>
        <_>
          0 13 2 2 -1.</_>
        <_>
          0 14 2 1 2.</_></rects>
      <tilted>0</tilted></_>
    <_>
      <rects>
        <_>
          0 13 6 2 -1.</_>
        <_>
          0 13 3 1 2.</_>
        <_>
          3 14 3 1 2.</_></rects>
      <tilted>0</tilted></_>
    <_>
      <rects>
        <_>
          0 16 1 2 -1.</_>
        <_>
          0 17 1 1 2.</_></rects>
      <tilted>0</tilted></_>
    <_>
      <rects>
        <_>
          0 17 1 3 -1.</_>
        <_>
          0 18 1 1 3.</_></rects>
      <tilted>0</tilted></_>
    <_>
      <rects>
        <_>
          0 18 16 6 -1.</_>
        <_>
          0 20 16 2 3.</_></rects>
      <tilted>0</tilted></_>
    <_>
      <rects>
        <_>
          1 0 2 1 -1.</_>
        <_>
          2 0 1 1 2.</_></rects>
      <tilted>0</tilted></_>
    <_>
      <rects>
        <_>
          1 0 3 1 -1.</_>
        <_>
          2 0 1 1 3.</_></rects>
      <tilted>0</tilted></_>
    <_>
      <rects>
        <_>
          1 0 6 9 -1.</_>
        <_>
          3 0 2 9 3.</_></rects>
      <tilted>0</tilted></_>
    <_>
      <rects>
        <_>
          1 0 15 4 -1.</_>
        <_>
          1 2 15 2 2.</_></rects>
      <tilted>0</tilted></_>
    <_>
      <rects>
        <_>
          1 2 4 19 -1.</_>
        <_>
          3 2 2 19 2.</_></rects>
      <tilted>0</tilted></_>
    <_>
      <rects>
        <_>
          1 4 9 2 -1.</_>
        <_>
          4 4 3 2 3.</_></rects>
      <tilted>0</tilted></_>
    <_>
      <rects>
        <_>
          1 13 1 2 -1.</_>
        <_>
          1 14 1 1 2.</_></rects>
      <tilted>0</tilted></_>
    <_>
      <rects>
        <_>
          1 15 4 9 -1.</_>
        <_>
          3 15 2 9 2.</_></rects>
      <tilted>0</tilted></_>
    <_>
      <rects>
        <_>
          1 20 4 3 -1.</_>
        <_>
          3 20 2 3 2.</_></rects>
      <tilted>0</tilted></_>
    <_>
      <rects>
        <_>
          1 22 2 1 -1.</_>
        <_>
          2 22 1 1 2.</_></rects>
      <tilted>0</tilted></_>
    <_>
      <rects>
        <_>
          1 22 14 1 -1.</_>
        <_>
          8 22 7 1 2.</_></rects>
      <tilted>0</tilted></_>
    <_>
      <rects>
        <_>
          1 23 4 1 -1.</_>
        <_>
          3 23 2 1 2.</_></rects>
      <tilted>0</tilted></_>
    <_>
      <rects>
        <_>
          2 0 3 1 -1.</_>
        <_>
          3 0 1 1 3.</_></rects>
      <tilted>0</tilted></_>
    <_>
      <rects>
        <_>
          2 1 1 2 -1.</_>
        <_>
          2 2 1 1 2.</_></rects>
      <tilted>0</tilted></_>
    <_>
      <rects>
        <_>
          2 6 3 9 -1.</_>
        <_>
          3 6 1 9 3.</_></rects>
      <tilted>0</tilted></_>
    <_>
      <rects>
        <_>
          2 6 3 16 -1.</_>
        <_>
          3 6 1 16 3.</_></rects>
      <tilted>0</tilted></_>
    <_>
      <rects>
        <_>
          2 7 3 2 -1.</_>
        <_>
          3 7 1 2 3.</_></rects>
      <tilted>0</tilted></_>
    <_>
      <rects>
        <_>
          2 8 3 8 -1.</_>
        <_>
          3 8 1 8 3.</_></rects>
      <tilted>0</tilted></_>
    <_>
      <rects>
        <_>
          2 9 20 3 -1.</_>
        <_>
          2 10 20 1 3.</_></rects>
      <tilted>0</tilted></_>
    <_>
      <rects>
        <_>
          2 12 14 12 -1.</_>
        <_>
          2 16 14 4 3.</_></rects>
      <tilted>0</tilted></_>
    <_>
      <rects>
        <_>
          2 13 6 8 -1.</_>
        <_>
          4 13 2 8 3.</_></rects>
      <tilted>0</tilted></_>
    <_>
      <rects>
        <_>
          2 13 12 7 -1.</_>
        <_>
          6 13 4 7 3.</_></rects>
      <tilted>0</tilted></_>
    <_>
      <rects>
        <_>
          2 17 6 4 -1.</_>
        <_>
          2 17 3 2 2.</_>
        <_>
          5 19 3 2 2.</_></rects>
      <tilted>0</tilted></_>
    <_>
      <rects>
        <_>
          3 0 3 3 -1.</_>
        <_>
          4 0 1 3 3.</_></rects>
      <tilted>0</tilted></_>
    <_>
      <rects>
        <_>
          3 0 14 1 -1.</_>
        <_>
          10 0 7 1 2.</_></rects>
      <tilted>0</tilted></_>
    <_>
      <rects>
        <_>
          3 0 17 4 -1.</_>
        <_>
          3 2 17 2 2.</_></rects>
      <tilted>0</tilted></_>
    <_>
      <rects>
        <_>
          3 1 10 10 -1.</_>
        <_>
          3 6 10 5 2.</_></rects>
      <tilted>0</tilted></_>
    <_>
      <rects>
        <_>
          3 3 21 17 -1.</_>
        <_>
          10 3 7 17 3.</_></rects>
      <tilted>0</tilted></_>
    <_>
      <rects>
        <_>
          3 3 14 2 -1.</_>
        <_>
          3 4 14 1 2.</_></rects>
      <tilted>0</tilted></_>
    <_>
      <rects>
        <_>
          3 4 21 6 -1.</_>
        <_>
          10 4 7 6 3.</_></rects>
      <tilted>0</tilted></_>
    <_>
      <rects>
        <_>
          3 6 2 2 -1.</_>
        <_>
          3 6 1 1 2.</_>
        <_>
          4 7 1 1 2.</_></rects>
      <tilted>0</tilted></_>
    <_>
      <rects>
        <_>
          3 6 3 4 -1.</_>
        <_>
          4 6 1 4 3.</_></rects>
      <tilted>0</tilted></_>
    <_>
      <rects>
        <_>
          3 7 1 2 -1.</_>
        <_>
          3 8 1 1 2.</_></rects>
      <tilted>0</tilted></_>
    <_>
      <rects>
        <_>
          3 7 6 11 -1.</_>
        <_>
          5 7 2 11 3.</_></rects>
      <tilted>0</tilted></_>
    <_>
      <rects>
        <_>
          3 11 7 3 -1.</_>
        <_>
          3 12 7 1 3.</_></rects>
      <tilted>0</tilted></_>
    <_>
      <rects>
        <_>
          3 12 1 2 -1.</_>
        <_>
          3 13 1 1 2.</_></rects>
      <tilted>0</tilted></_>
    <_>
      <rects>
        <_>
          3 15 3 9 -1.</_>
        <_>
          4 15 1 9 3.</_></rects>
      <tilted>0</tilted></_>
    <_>
      <rects>
        <_>
          3 19 2 4 -1.</_>
        <_>
          3 19 1 2 2.</_>
        <_>
          4 21 1 2 2.</_></rects>
      <tilted>0</tilted></_>
    <_>
      <rects>
        <_>
          3 20 2 2 -1.</_>
        <_>
          3 20 1 1 2.</_>
        <_>
          4 21 1 1 2.</_></rects>
      <tilted>0</tilted></_>
    <_>
      <rects>
        <_>
          3 21 2 2 -1.</_>
        <_>
          3 21 1 1 2.</_>
        <_>
          4 22 1 1 2.</_></rects>
      <tilted>0</tilted></_>
    <_>
      <rects>
        <_>
          4 0 3 1 -1.</_>
        <_>
          5 0 1 1 3.</_></rects>
      <tilted>0</tilted></_>
    <_>
      <rects>
        <_>
          4 0 4 1 -1.</_>
        <_>
          6 0 2 1 2.</_></rects>
      <tilted>0</tilted></_>
    <_>
      <rects>
        <_>
          4 0 9 3 -1.</_>
        <_>
          7 0 3 3 3.</_></rects>
      <tilted>0</tilted></_>
    <_>
      <rects>
        <_>
          4 0 10 12 -1.</_>
        <_>
          4 6 10 6 2.</_></rects>
      <tilted>0</tilted></_>
    <_>
      <rects>
        <_>
          4 2 16 22 -1.</_>
        <_>
          4 2 8 11 2.</_>
        <_>
          12 13 8 11 2.</_></rects>
      <tilted>0</tilted></_>
    <_>
      <rects>
        <_>
          4 9 1 4 -1.</_>
        <_>
          4 11 1 2 2.</_></rects>
      <tilted>0</tilted></_>
    <_>
      <rects>
        <_>
          4 18 20 6 -1.</_>
        <_>
          14 18 10 6 2.</_></rects>
      <tilted>0</tilted></_>
    <_>
      <rects>
        <_>
          4 23 20 1 -1.</_>
        <_>
          14 23 10 1 2.</_></rects>
      <tilted>0</tilted></_>
    <_>
      <rects>
        <_>
          5 0 3 10 -1.</_>
        <_>
          6 0 1 10 3.</_></rects>
      <tilted>0</tilted></_>
    <_>
      <rects>
        <_>
          5 0 8 1 -1.</_>
        <_>
          9 0 4 1 2.</_></rects>
      <tilted>0</tilted></_>
    <_>
      <rects>
        <_>
          5 1 9 8 -1.</_>
        <_>
          5 5 9 4 2.</_></rects>
      <tilted>0</tilted></_>
    <_>
      <rects>
        <_>
          5 3 4 10 -1.</_>
        <_>
          5 3 2 5 2.</_>
        <_>
          7 8 2 5 2.</_></rects>
      <tilted>0</tilted></_>
    <_>
      <rects>
        <_>
          5 4 4 6 -1.</_>
        <_>
          5 4 2 3 2.</_>
        <_>
          7 7 2 3 2.</_></rects>
      <tilted>0</tilted></_>
    <_>
      <rects>
        <_>
          5 4 4 14 -1.</_>
        <_>
          5 4 2 7 2.</_>
        <_>
          7 11 2 7 2.</_></rects>
      <tilted>0</tilted></_>
    <_>
      <rects>
        <_>
          5 6 3 2 -1.</_>
        <_>
          6 6 1 2 3.</_></rects>
      <tilted>0</tilted></_>
    <_>
      <rects>
        <_>
          5 6 6 11 -1.</_>
        <_>
          7 6 2 11 3.</_></rects>
      <tilted>0</tilted></_>
    <_>
      <rects>
        <_>
          5 11 6 8 -1.</_>
        <_>
          7 11 2 8 3.</_></rects>
      <tilted>0</tilted></_>
    <_>
      <rects>
        <_>
          5 13 2 1 -1.</_>
        <_>
          6 13 1 1 2.</_></rects>
      <tilted>0</tilted></_>
    <_>
      <rects>
        <_>
          5 13 11 3 -1.</_>
        <_>
          5 14 11 1 3.</_></rects>
      <tilted>0</tilted></_>
    <_>
      <rects>
        <_>
          5 14 2 6 -1.</_>
        <_>
          5 14 1 3 2.</_>
        <_>
          6 17 1 3 2.</_></rects>
      <tilted>0</tilted></_>
    <_>
      <rects>
        <_>
          5 22 1 2 -1.</_>
        <_>
          5 23 1 1 2.</_></rects>
      <tilted>0</tilted></_>
    <_>
      <rects>
        <_>
          6 0 15 1 -1.</_>
        <_>
          11 0 5 1 3.</_></rects>
      <tilted>0</tilted></_>
    <_>
      <rects>
        <_>
          6 0 18 1 -1.</_>
        <_>
          15 0 9 1 2.</_></rects>
      <tilted>0</tilted></_>
    <_>
      <rects>
        <_>
          6 0 12 3 -1.</_>
        <_>
          6 1 12 1 3.</_></rects>
      <tilted>0</tilted></_>
    <_>
      <rects>
        <_>
          6 0 15 6 -1.</_>
        <_>
          6 2 15 2 3.</_></rects>
      <tilted>0</tilted></_>
    <_>
      <rects>
        <_>
          6 1 9 10 -1.</_>
        <_>
          6 6 9 5 2.</_></rects>
      <tilted>0</tilted></_>
    <_>
      <rects>
        <_>
          6 2 3 9 -1.</_>
        <_>
          7 2 1 9 3.</_></rects>
      <tilted>0</tilted></_>
    <_>
      <rects>
        <_>
          6 2 6 10 -1.</_>
        <_>
          6 2 3 5 2.</_>
        <_>
          9 7 3 5 2.</_></rects>
      <tilted>0</tilted></_>
    <_>
      <rects>
        <_>
          6 2 15 21 -1.</_>
        <_>
          11 2 5 21 3.</_></rects>
      <tilted>0</tilted></_>
    <_>
      <rects>
        <_>
          6 5 6 3 -1.</_>
        <_>
          8 5 2 3 3.</_></rects>
      <tilted>0</tilted></_>
    <_>
      <rects>
        <_>
          6 13 12 6 -1.</_>
        <_>
          6 15 12 2 3.</_></rects>
      <tilted>0</tilted></_>
    <_>
      <rects>
        <_>
          6 14 2 8 -1.</_>
        <_>
          6 14 1 4 2.</_>
        <_>
          7 18 1 4 2.</_></rects>
      <tilted>0</tilted></_>
    <_>
      <rects>
        <_>
          6 14 3 7 -1.</_>
        <_>
          7 14 1 7 3.</_></rects>
      <tilted>0</tilted></_>
    <_>
      <rects>
        <_>
          7 0 6 1 -1.</_>
        <_>
          10 0 3 1 2.</_></rects>
      <tilted>0</tilted></_>
    <_>
      <rects>
        <_>
          7 0 8 1 -1.</_>
        <_>
          11 0 4 1 2.</_></rects>
      <tilted>0</tilted></_>
    <_>
      <rects>
        <_>
          7 1 1 3 -1.</_>
        <_>
          7 2 1 1 3.</_></rects>
      <tilted>0</tilted></_>
    <_>
      <rects>
        <_>
          7 1 3 6 -1.</_>
        <_>
          7 3 3 2 3.</_></rects>
      <tilted>0</tilted></_>
    <_>
      <rects>
        <_>
          7 3 1 3 -1.</_>
        <_>
          7 4 1 1 3.</_></rects>
      <tilted>0</tilted></_>
    <_>
      <rects>
        <_>
          7 5 6 13 -1.</_>
        <_>
          9 5 2 13 3.</_></rects>
      <tilted>0</tilted></_>
    <_>
      <rects>
        <_>
          7 6 3 6 -1.</_>
        <_>
          8 6 1 6 3.</_></rects>
      <tilted>0</tilted></_>
    <_>
      <rects>
        <_>
          7 7 3 1 -1.</_>
        <_>
          8 7 1 1 3.</_></rects>
      <tilted>0</tilted></_>
    <_>
      <rects>
        <_>
          7 8 3 15 -1.</_>
        <_>
          7 13 3 5 3.</_></rects>
      <tilted>0</tilted></_>
    <_>
      <rects>
        <_>
          7 9 14 14 -1.</_>
        <_>
          7 16 14 7 2.</_></rects>
      <tilted>0</tilted></_>
    <_>
      <rects>
        <_>
          7 19 12 1 -1.</_>
        <_>
          13 19 6 1 2.</_></rects>
      <tilted>0</tilted></_>
    <_>
      <rects>
        <_>
          7 20 3 4 -1.</_>
        <_>
          7 22 3 2 2.</_></rects>
      <tilted>0</tilted></_>
    <_>
      <rects>
        <_>
          8 0 4 1 -1.</_>
        <_>
          10 0 2 1 2.</_></rects>
      <tilted>0</tilted></_>
    <_>
      <rects>
        <_>
          8 0 6 2 -1.</_>
        <_>
          8 1 6 1 2.</_></rects>
      <tilted>0</tilted></_>
    <_>
      <rects>
        <_>
          8 0 10 15 -1.</_>
        <_>
          8 5 10 5 3.</_></rects>
      <tilted>0</tilted></_>
    <_>
      <rects>
        <_>
          8 1 5 6 -1.</_>
        <_>
          8 3 5 2 3.</_></rects>
      <tilted>0</tilted></_>
    <_>
      <rects>
        <_>
          8 2 3 5 -1.</_>
        <_>
          9 2 1 5 3.</_></rects>
      <tilted>0</tilted></_>
    <_>
      <rects>
        <_>
          8 3 2 2 -1.</_>
        <_>
          8 3 1 1 2.</_>
        <_>
          9 4 1 1 2.</_></rects>
      <tilted>0</tilted></_>
    <_>
      <rects>
        <_>
          8 5 6 13 -1.</_>
        <_>
          10 5 2 13 3.</_></rects>
      <tilted>0</tilted></_>
    <_>
      <rects>
        <_>
          8 11 6 5 -1.</_>
        <_>
          10 11 2 5 3.</_></rects>
      <tilted>0</tilted></_>
    <_>
      <rects>
        <_>
          8 11 9 1 -1.</_>
        <_>
          11 11 3 1 3.</_></rects>
      <tilted>0</tilted></_>
    <_>
      <rects>
        <_>
          8 16 3 1 -1.</_>
        <_>
          9 16 1 1 3.</_></rects>
      <tilted>0</tilted></_>
    <_>
      <rects>
        <_>
          8 16 6 5 -1.</_>
        <_>
          10 16 2 5 3.</_></rects>
      <tilted>0</tilted></_>
    <_>
      <rects>
        <_>
          8 17 2 1 -1.</_>
        <_>
          9 17 1 1 2.</_></rects>
      <tilted>0</tilted></_>
    <_>
      <rects>
        <_>
          8 17 7 2 -1.</_>
        <_>
          8 18 7 1 2.</_></rects>
      <tilted>0</tilted></_>
    <_>
      <rects>
        <_>
          8 18 1 6 -1.</_>
        <_>
          8 21 1 3 2.</_></rects>
      <tilted>0</tilted></_>
    <_>
      <rects>
        <_>
          8 18 6 6 -1.</_>
        <_>
          8 18 3 3 2.</_>
        <_>
          11 21 3 3 2.</_></rects>
      <tilted>0</tilted></_>
    <_>
      <rects>
        <_>
          8 21 6 2 -1.</_>
        <_>
          10 21 2 2 3.</_></rects>
      <tilted>0</tilted></_>
    <_>
      <rects>
        <_>
          9 0 2 1 -1.</_>
        <_>
          10 0 1 1 2.</_></rects>
      <tilted>0</tilted></_>
    <_>
      <rects>
        <_>
          9 1 2 22 -1.</_>
        <_>
          10 1 1 22 2.</_></rects>
      <tilted>0</tilted></_>
    <_>
      <rects>
        <_>
          9 3 4 18 -1.</_>
        <_>
          9 3 2 9 2.</_>
        <_>
          11 12 2 9 2.</_></rects>
      <tilted>0</tilted></_>
    <_>
      <rects>
        <_>
          9 4 14 6 -1.</_>
        <_>
          9 4 7 3 2.</_>
        <_>
          16 7 7 3 2.</_></rects>
      <tilted>0</tilted></_>
    <_>
      <rects>
        <_>
          9 5 2 4 -1.</_>
        <_>
          9 5 1 2 2.</_>
        <_>
          10 7 1 2 2.</_></rects>
      <tilted>0</tilted></_>
    <_>
      <rects>
        <_>
          9 6 2 2 -1.</_>
        <_>
          9 6 1 1 2.</_>
        <_>
          10 7 1 1 2.</_></rects>
      <tilted>0</tilted></_>
    <_>
      <rects>
        <_>
          9 6 14 16 -1.</_>
        <_>
          9 14 14 8 2.</_></rects>
      <tilted>0</tilted></_>
    <_>
      <rects>
        <_>
          9 7 6 8 -1.</_>
        <_>
          9 11 6 4 2.</_></rects>
      <tilted>0</tilted></_>
    <_>
      <rects>
        <_>
          9 14 3 2 -1.</_>
        <_>
          10 14 1 2 3.</_></rects>
      <tilted>0</tilted></_>
    <_>
      <rects>
        <_>
          9 21 6 2 -1.</_>
        <_>
          9 22 6 1 2.</_></rects>
      <tilted>0</tilted></_>
    <_>
      <rects>
        <_>
          10 0 9 1 -1.</_>
        <_>
          13 0 3 1 3.</_></rects>
      <tilted>0</tilted></_>
    <_>
      <rects>
        <_>
          10 0 13 3 -1.</_>
        <_>
          10 1 13 1 3.</_></rects>
      <tilted>0</tilted></_>
    <_>
      <rects>
        <_>
          10 5 1 12 -1.</_>
        <_>
          10 11 1 6 2.</_></rects>
      <tilted>0</tilted></_>
    <_>
      <rects>
        <_>
          11 0 3 1 -1.</_>
        <_>
          12 0 1 1 3.</_></rects>
      <tilted>0</tilted></_>
    <_>
      <rects>
        <_>
          11 0 2 21 -1.</_>
        <_>
          11 7 2 7 3.</_></rects>
      <tilted>0</tilted></_>
    <_>
      <rects>
        <_>
          11 0 10 8 -1.</_>
        <_>
          11 4 10 4 2.</_></rects>
      <tilted>0</tilted></_>
    <_>
      <rects>
        <_>
          11 4 6 4 -1.</_>
        <_>
          14 4 3 4 2.</_></rects>
      <tilted>0</tilted></_>
    <_>
      <rects>
        <_>
          11 8 6 13 -1.</_>
        <_>
          13 8 2 13 3.</_></rects>
      <tilted>0</tilted></_>
    <_>
      <rects>
        <_>
          11 12 3 2 -1.</_>
        <_>
          12 12 1 2 3.</_></rects>
      <tilted>0</tilted></_>
    <_>
      <rects>
        <_>
          11 13 8 4 -1.</_>
        <_>
          11 13 4 2 2.</_>
        <_>
          15 15 4 2 2.</_></rects>
      <tilted>0</tilted></_>
    <_>
      <rects>
        <_>
          11 14 1 2 -1.</_>
        <_>
          11 15 1 1 2.</_></rects>
      <tilted>0</tilted></_>
    <_>
      <rects>
        <_>
          11 18 2 3 -1.</_>
        <_>
          12 18 1 3 2.</_></rects>
      <tilted>0</tilted></_>
    <_>
      <rects>
        <_>
          11 22 12 2 -1.</_>
        <_>
          17 22 6 2 2.</_></rects>
      <tilted>0</tilted></_>
    <_>
      <rects>
        <_>
          12 0 4 1 -1.</_>
        <_>
          14 0 2 1 2.</_></rects>
      <tilted>0</tilted></_>
    <_>
      <rects>
        <_>
          12 6 2 1 -1.</_>
        <_>
          13 6 1 1 2.</_></rects>
      <tilted>0</tilted></_>
    <_>
      <rects>
        <_>
          12 13 4 3 -1.</_>
        <_>
          12 14 4 1 3.</_></rects>
      <tilted>0</tilted></_>
    <_>
      <rects>
        <_>
          12 18 12 3 -1.</_>
        <_>
          12 19 12 1 3.</_></rects>
      <tilted>0</tilted></_>
    <_>
      <rects>
        <_>
          13 0 2 10 -1.</_>
        <_>
          13 0 1 5 2.</_>
        <_>
          14 5 1 5 2.</_></rects>
      <tilted>0</tilted></_>
    <_>
      <rects>
        <_>
          13 0 5 6 -1.</_>
        <_>
          13 2 5 2 3.</_></rects>
      <tilted>0</tilted></_>
    <_>
      <rects>
        <_>
          13 1 2 14 -1.</_>
        <_>
          13 8 2 7 2.</_></rects>
      <tilted>0</tilted></_>
    <_>
      <rects>
        <_>
          13 2 3 1 -1.</_>
        <_>
          14 2 1 1 3.</_></rects>
      <tilted>0</tilted></_>
    <_>
      <rects>
        <_>
          13 3 9 6 -1.</_>
        <_>
          16 3 3 6 3.</_></rects>
      <tilted>0</tilted></_>
    <_>
      <rects>
        <_>
          13 9 2 3 -1.</_>
        <_>
          13 10 2 1 3.</_></rects>
      <tilted>0</tilted></_>
    <_>
      <rects>
        <_>
          13 13 9 8 -1.</_>
        <_>
          13 17 9 4 2.</_></rects>
      <tilted>0</tilted></_>
    <_>
      <rects>
        <_>
          13 17 2 2 -1.</_>
        <_>
          13 17 1 1 2.</_>
        <_>
          14 18 1 1 2.</_></rects>
      <tilted>0</tilted></_>
    <_>
      <rects>
        <_>
          14 1 2 2 -1.</_>
        <_>
          14 1 1 1 2.</_>
        <_>
          15 2 1 1 2.</_></rects>
      <tilted>0</tilted></_>
    <_>
      <rects>
        <_>
          14 1 3 6 -1.</_>
        <_>
          14 3 3 2 3.</_></rects>
      <tilted>0</tilted></_>
    <_>
      <rects>
        <_>
          14 6 6 8 -1.</_>
        <_>
          16 6 2 8 3.</_></rects>
      <tilted>0</tilted></_>
    <_>
      <rects>
        <_>
          14 14 6 4 -1.</_>
        <_>
          16 14 2 4 3.</_></rects>
      <tilted>0</tilted></_>
    <_>
      <rects>
        <_>
          14 14 10 2 -1.</_>
        <_>
          14 14 5 1 2.</_>
        <_>
          19 15 5 1 2.</_></rects>
      <tilted>0</tilted></_>
    <_>
      <rects>
        <_>
          14 21 9 3 -1.</_>
        <_>
          14 22 9 1 3.</_></rects>
      <tilted>0</tilted></_>
    <_>
      <rects>
        <_>
          15 0 5 9 -1.</_>
        <_>
          15 3 5 3 3.</_></rects>
      <tilted>0</tilted></_>
    <_>
      <rects>
        <_>
          15 0 7 6 -1.</_>
        <_>
          15 3 7 3 2.</_></rects>
      <tilted>0</tilted></_>
    <_>
      <rects>
        <_>
          15 1 1 21 -1.</_>
        <_>
          15 8 1 7 3.</_></rects>
      <tilted>0</tilted></_>
    <_>
      <rects>
        <_>
          15 5 6 15 -1.</_>
        <_>
          17 5 2 15 3.</_></rects>
      <tilted>0</tilted></_>
    <_>
      <rects>
        <_>
          15 5 9 16 -1.</_>
        <_>
          18 5 3 16 3.</_></rects>
      <tilted>0</tilted></_>
    <_>
      <rects>
        <_>
          15 6 2 18 -1.</_>
        <_>
          15 6 1 9 2.</_>
        <_>
          16 15 1 9 2.</_></rects>
      <tilted>0</tilted></_>
    <_>
      <rects>
        <_>
          15 10 2 4 -1.</_>
        <_>
          15 10 1 2 2.</_>
        <_>
          16 12 1 2 2.</_></rects>
      <tilted>0</tilted></_>
    <_>
      <rects>
        <_>
          15 11 2 4 -1.</_>
        <_>
          15 11 1 2 2.</_>
        <_>
          16 13 1 2 2.</_></rects>
      <tilted>0</tilted></_>
    <_>
      <rects>
        <_>
          15 12 2 4 -1.</_>
        <_>
          15 12 1 2 2.</_>
        <_>
          16 14 1 2 2.</_></rects>
      <tilted>0</tilted></_>
    <_>
      <rects>
        <_>
          15 15 6 2 -1.</_>
        <_>
          18 15 3 2 2.</_></rects>
      <tilted>0</tilted></_>
    <_>
      <rects>
        <_>
          15 18 2 2 -1.</_>
        <_>
          15 18 1 1 2.</_>
        <_>
          16 19 1 1 2.</_></rects>
      <tilted>0</tilted></_>
    <_>
      <rects>
        <_>
          15 20 6 4 -1.</_>
        <_>
          15 22 6 2 2.</_></rects>
      <tilted>0</tilted></_>
    <_>
      <rects>
        <_>
          15 21 3 3 -1.</_>
        <_>
          15 22 3 1 3.</_></rects>
      <tilted>0</tilted></_>
    <_>
      <rects>
        <_>
          16 10 2 2 -1.</_>
        <_>
          16 10 1 1 2.</_>
        <_>
          17 11 1 1 2.</_></rects>
      <tilted>0</tilted></_>
    <_>
      <rects>
        <_>
          16 17 3 1 -1.</_>
        <_>
          17 17 1 1 3.</_></rects>
      <tilted>0</tilted></_>
    <_>
      <rects>
        <_>
          17 0 4 12 -1.</_>
        <_>
          17 0 2 6 2.</_>
        <_>
          19 6 2 6 2.</_></rects>
      <tilted>0</tilted></_>
    <_>
      <rects>
        <_>
          17 1 2 9 -1.</_>
        <_>
          17 4 2 3 3.</_></rects>
      <tilted>0</tilted></_>
    <_>
      <rects>
        <_>
          17 7 4 5 -1.</_>
        <_>
          19 7 2 5 2.</_></rects>
      <tilted>0</tilted></_>
    <_>
      <rects>
        <_>
          17 10 6 10 -1.</_>
        <_>
          19 10 2 10 3.</_></rects>
      <tilted>0</tilted></_>
    <_>
      <rects>
        <_>
          17 13 2 4 -1.</_>
        <_>
          17 13 1 2 2.</_>
        <_>
          18 15 1 2 2.</_></rects>
      <tilted>0</tilted></_>
    <_>
      <rects>
        <_>
          18 0 2 1 -1.</_>
        <_>
          19 0 1 1 2.</_></rects>
      <tilted>0</tilted></_>
    <_>
      <rects>
        <_>
          18 0 3 2 -1.</_>
        <_>
          19 0 1 2 3.</_></rects>
      <tilted>0</tilted></_>
    <_>
      <rects>
        <_>
          18 0 6 2 -1.</_>
        <_>
          18 0 3 1 2.</_>
        <_>
          21 1 3 1 2.</_></rects>
      <tilted>0</tilted></_>
    <_>
      <rects>
        <_>
          18 1 6 18 -1.</_>
        <_>
          18 1 3 9 2.</_>
        <_>
          21 10 3 9 2.</_></rects>
      <tilted>0</tilted></_>
    <_>
      <rects>
        <_>
          18 5 2 2 -1.</_>
        <_>
          18 5 1 1 2.</_>
        <_>
          19 6 1 1 2.</_></rects>
      <tilted>0</tilted></_>
    <_>
      <rects>
        <_>
          18 9 1 3 -1.</_>
        <_>
          18 10 1 1 3.</_></rects>
      <tilted>0</tilted></_>
    <_>
      <rects>
        <_>
          18 10 3 2 -1.</_>
        <_>
          19 10 1 2 3.</_></rects>
      <tilted>0</tilted></_>
    <_>
      <rects>
        <_>
          18 13 6 3 -1.</_>
        <_>
          20 13 2 3 3.</_></rects>
      <tilted>0</tilted></_>
    <_>
      <rects>
        <_>
          18 13 6 3 -1.</_>
        <_>
          21 13 3 3 2.</_></rects>
      <tilted>0</tilted></_>
    <_>
      <rects>
        <_>
          18 18 2 2 -1.</_>
        <_>
          18 18 1 1 2.</_>
        <_>
          19 19 1 1 2.</_></rects>
      <tilted>0</tilted></_>
    <_>
      <rects>
        <_>
          19 0 2 6 -1.</_>
        <_>
          20 0 1 6 2.</_></rects>
      <tilted>0</tilted></_>
    <_>
      <rects>
        <_>
          19 6 2 2 -1.</_>
        <_>
          19 6 1 1 2.</_>
        <_>
          20 7 1 1 2.</_></rects>
      <tilted>0</tilted></_>
    <_>
      <rects>
        <_>
          19 10 4 2 -1.</_>
        <_>
          19 10 2 1 2.</_>
        <_>
          21 11 2 1 2.</_></rects>
      <tilted>0</tilted></_>
    <_>
      <rects>
        <_>
          19 13 3 6 -1.</_>
        <_>
          20 13 1 6 3.</_></rects>
      <tilted>0</tilted></_>
    <_>
      <rects>
        <_>
          19 15 3 2 -1.</_>
        <_>
          20 15 1 2 3.</_></rects>
      <tilted>0</tilted></_>
    <_>
      <rects>
        <_>
          20 17 1 2 -1.</_>
        <_>
          20 18 1 1 2.</_></rects>
      <tilted>0</tilted></_>
    <_>
      <rects>
        <_>
          20 20 1 2 -1.</_>
        <_>
          20 21 1 1 2.</_></rects>
      <tilted>0</tilted></_>
    <_>
      <rects>
        <_>
          21 0 3 1 -1.</_>
        <_>
          22 0 1 1 3.</_></rects>
      <tilted>0</tilted></_>
    <_>
      <rects>
        <_>
          21 2 3 2 -1.</_>
        <_>
          21 3 3 1 2.</_></rects>
      <tilted>0</tilted></_>
    <_>
      <rects>
        <_>
          21 9 2 3 -1.</_>
        <_>
          21 10 2 1 3.</_></rects>
      <tilted>0</tilted></_>
    <_>
      <rects>
        <_>
          21 11 1 3 -1.</_>
        <_>
          21 12 1 1 3.</_></rects>
      <tilted>0</tilted></_>
    <_>
      <rects>
        <_>
          21 12 2 2 -1.</_>
        <_>
          21 12 1 1 2.</_>
        <_>
          22 13 1 1 2.</_></rects>
      <tilted>0</tilted></_>
    <_>
      <rects>
        <_>
          21 19 3 2 -1.</_>
        <_>
          21 20 3 1 2.</_></rects>
      <tilted>0</tilted></_>
    <_>
      <rects>
        <_>
          22 2 2 2 -1.</_>
        <_>
          22 2 1 1 2.</_>
        <_>
          23 3 1 1 2.</_></rects>
      <tilted>0</tilted></_>
    <_>
      <rects>
        <_>
          22 7 2 4 -1.</_>
        <_>
          22 7 1 2 2.</_>
        <_>
          23 9 1 2 2.</_></rects>
      <tilted>0</tilted></_>
    <_>
      <rects>
        <_>
          22 17 1 3 -1.</_>
        <_>
          22 18 1 1 3.</_></rects>
      <tilted>0</tilted></_>
    <_>
      <rects>
        <_>
          22 19 2 2 -1.</_>
        <_>
          22 19 1 1 2.</_>
        <_>
          23 20 1 1 2.</_></rects>
      <tilted>0</tilted></_>
    <_>
      <rects>
        <_>
          23 2 1 3 -1.</_>
        <_>
          23 3 1 1 3.</_></rects>
      <tilted>0</tilted></_>
    <_>
      <rects>
        <_>
          23 11 1 2 -1.</_>
        <_>
          23 12 1 1 2.</_></rects>
      <tilted>0</tilted></_></features></cascade>
</opencv_storage>
